-3.541903197765350342e-01 -4.507928192615509033e-01 -2.459027469158172607e-01 -1.657293140888214111e-01 -1.183828059583902359e-02 -3.302839994430541992e-01 -6.376559734344482422e-01 -5.240732431411743164e-01 -1.321052573621273041e-02 3.172081708908081055e-01 1.584361642599105835e-01 4.878265783190727234e-02 -5.041248798370361328e-01 -3.644970059394836426e-01 -4.916497766971588135e-01 -1.651852279901504517e-01 -5.314222574234008789e-01 3.854539096355438232e-01 -2.066652029752731323e-01 -2.134378105401992798e-01 6.552875638008117676e-01 -2.963100373744964600e-01 -7.427585721015930176e-01 3.232437968254089355e-01 -1.003856897354125977e+00
1.558278650045394897e-01 1.911759078502655029e-01 4.896250963211059570e-01 7.827069163322448730e-01 6.440953016281127930e-01 4.742521941661834717e-01 4.341925680637359619e-01 4.204999208450317383e-01 3.961747288703918457e-01 3.764761090278625488e-01 1.674936562776565552e-01 2.444500774145126343e-01 3.981787860393524170e-01 1.451176851987838745e-01 1.011648058891296387e+00 -4.743394851684570312e-01 8.796249032020568848e-01 -7.286394238471984863e-01 -5.030379891395568848e-01 5.110408663749694824e-01 -9.151996374130249023e-01 -1.336220651865005493e-01 8.861182332038879395e-01 -1.196053147315979004e+00 -1.274141371250152588e-01
-1.897146403789520264e-01 -6.133160591125488281e-01 -8.111168742179870605e-01 -9.938768148422241211e-01 -9.275711774826049805e-01 -8.565975427627563477e-01 -5.731716752052307129e-01 -3.877926170825958252e-01 -7.651972025632858276e-02 8.533564209938049316e-02 1.894514411687850952e-01 2.917707264423370361e-01 1.158629655838012695e-01 2.178256064653396606e-01 4.870757460594177246e-02 3.226371407508850098e-01 1.055265367031097412e-01 4.994936883449554443e-01 3.994189500808715820e-01 2.768485546112060547e-01 4.101351499557495117e-01 1.115165278315544128e-01 -1.135457381606101990e-01 -2.654648944735527039e-02 -3.272782266139984131e-01
4.275404810905456543e-01 5.589691996574401855e-01 5.062536001205444336e-01 4.034492969512939453e-01 4.433068931102752686e-01 4.882197678089141846e-01 4.979708194732666016e-01 5.015012621879577637e-01 4.245835542678833008e-01 3.461091518402099609e-01 1.431855559349060059e-01 2.800367772579193115e-01 -9.724816679954528809e-02 3.803167045116424561e-01 -5.299461539834737778e-03 -2.919803261756896973e-01 7.858738303184509277e-01 -7.681515812873840332e-01 -4.599380865693092346e-02 8.486138582229614258e-01 -6.917665004730224609e-01 -2.307028174400329590e-01 8.084218502044677734e-01 -6.472112536430358887e-01 -1.810200512409210205e-01
6.534659862518310547e-01 5.844491720199584961e-01 3.242936432361602783e-01 1.858614385128021240e-01 2.250251770019531250e-01 4.407003223896026611e-01 4.884306788444519043e-01 2.011019140481948853e-01 -6.897152960300445557e-02 6.337749212980270386e-02 1.457952111959457397e-01 2.798857986927032471e-01 2.329221963882446289e-01 -2.124221809208393097e-02 3.684799671173095703e-01 -3.118714690208435059e-01 2.072771042585372925e-01 -4.091467559337615967e-01 2.555994391441345215e-01 3.161110877990722656e-01 1.446398049592971802e-01 3.489416241645812988e-01 3.740755319595336914e-01 -6.590124964714050293e-01 2.903533279895782471e-01
4.000669121742248535e-01 4.785299897193908691e-01 4.604742825031280518e-01 3.747571408748626709e-01 2.168431431055068970e-01 3.761793076992034912e-01 1.141096800565719604e-01 5.308092236518859863e-01 1.455264687538146973e-01 2.741866111755371094e-01 -9.161878377199172974e-03 -3.055650182068347931e-02 7.796860486268997192e-02 8.415992558002471924e-02 1.174210608005523682e-01 4.395543038845062256e-02 6.408594548702239990e-02 -1.413824111223220825e-01 1.733332574367523193e-01 3.264370858669281006e-01 -9.066095948219299316e-02 4.189261794090270996e-01 1.486188638955354691e-02 -3.283689320087432861e-01 1.229858174920082092e-01
-5.836477503180503845e-02 -5.440738424658775330e-02 -6.226534023880958557e-02 -1.071649640798568726e-01 -1.646029055118560791e-01 -2.046200931072235107e-01 -2.092247903347015381e-01 -2.120526134967803955e-01 -1.526879519224166870e-01 -1.316125839948654175e-01 -1.547933965921401978e-01 5.280017387121915817e-03 -5.079048871994018555e-01 5.331316590309143066e-01 -1.322703599929809570e+00 1.395692467689514160e+00 -1.449537992477416992e+00 4.822711050510406494e-01 6.462844014167785645e-01 -1.444676399230957031e+00 8.629348874092102051e-01 4.244826436042785645e-01 -1.354115724563598633e+00 1.261193513870239258e+00 -3.527348637580871582e-01
-4.976430237293243408e-01 -4.513113498687744141e-01 -6.896474957466125488e-01 -9.887680411338806152e-01 -7.569726109504699707e-01 -5.273737907409667969e-01 -1.441518366336822510e-01 -1.991238594055175781e-01 -4.501948952674865723e-01 -6.150010228157043457e-01 -7.511668801307678223e-01 -5.136940479278564453e-01 -1.436945199966430664e-01 -6.726763397455215454e-02 5.078905075788497925e-02 -1.989429593086242676e-01 -2.106778174638748169e-01 -4.806625843048095703e-01 -2.491202950477600098e-01 1.077077537775039673e-01 -1.584509164094924927e-01 -7.126395404338836670e-02 2.500666119158267975e-02 -7.961585521697998047e-01 -2.358644157648086548e-01
-4.513258039951324463e-01 -4.955178201198577881e-01 -4.481805264949798584e-01 -2.009467482566833496e-01 -1.155063658952713013e-01 -6.558316200971603394e-02 -2.962602972984313965e-01 -1.950566470623016357e-01 -3.486879765987396240e-01 1.927820444107055664e-01 -1.483939588069915771e-01 2.292457073926925659e-01 1.652972958981990814e-02 -3.159276545047760010e-01 -1.788406670093536377e-01 3.787077665328979492e-01 -2.452282160520553589e-01 3.838346600532531738e-01 2.476587146520614624e-01 -1.394912600517272949e-01 3.134285807609558105e-01 -5.313121080398559570e-01 -5.548093914985656738e-01 1.187204480171203613e+00 -6.209270358085632324e-01
5.892947316169738770e-01 7.241034507751464844e-01 8.196486234664916992e-01 1.030235767364501953e+00 4.515017867088317871e-01 -1.420759558677673340e-01 -2.917025052011013031e-02 3.753252625465393066e-01 7.231421470642089844e-01 6.648957729339599609e-01 3.683094680309295654e-01 1.130745839327573776e-02 -1.220444217324256897e-02 -8.566764742136001587e-02 1.956692337989807129e-01 4.771988093852996826e-01 3.851899504661560059e-01 6.412715911865234375e-01 3.087719678878784180e-01 -2.773957550525665283e-01 -1.982902735471725464e-01 -7.532170414924621582e-01 -9.522269964218139648e-01 -2.235023826360702515e-01 -6.582716107368469238e-01
-6.221921443939208984e-01 -7.357143163681030273e-01 -6.890313625335693359e-01 -5.942519903182983398e-01 -5.983027219772338867e-01 -4.829707443714141846e-01 -4.043548405170440674e-01 -3.205652236938476562e-01 -3.822098076343536377e-01 -3.022390902042388916e-01 -5.285971760749816895e-01 1.208926066756248474e-01 -5.696352720260620117e-01 3.282849490642547607e-01 -9.845244139432907104e-02 -1.038035452365875244e-01 -1.187237650156021118e-01 2.535017430782318115e-01 -3.580271899700164795e-01 -5.767371654510498047e-01 6.789758801460266113e-01 -3.327114284038543701e-01 -4.950865805149078369e-01 6.092745661735534668e-01 3.060296550393104553e-02
6.140937209129333496e-01 7.888342142105102539e-01 6.693352460861206055e-01 4.009986817836761475e-01 2.583674788475036621e-01 2.422835528850555420e-01 3.233630061149597168e-01 4.281385838985443115e-01 2.181511521339416504e-01 3.772301077842712402e-01 -2.573760449886322021e-01 4.372619390487670898e-01 -2.995090559124946594e-02 1.430177595466375351e-02 6.706285476684570312e-01 -1.836082339286804199e-01 1.221867948770523071e-01 -8.476386219263076782e-02 3.086297810077667236e-01 5.053511261940002441e-02 -3.284223079681396484e-01 3.187818229198455811e-01 4.381661415100097656e-01 -6.821007728576660156e-01 -1.828614249825477600e-02
-4.902129247784614563e-02 -6.539709866046905518e-02 -6.257428526878356934e-01 -6.728960871696472168e-01 -3.963498771190643311e-01 -4.595296382904052734e-01 -3.201908171176910400e-01 -4.836218655109405518e-01 3.660544008016586304e-02 1.219182759523391724e-01 2.522101104259490967e-01 -1.621390283107757568e-01 -4.502811431884765625e-01 -5.602298378944396973e-01 -3.098313510417938232e-01 3.468613326549530029e-01 -1.713106930255889893e-01 7.110324501991271973e-01 3.518656194210052490e-01 -3.550118207931518555e-01 4.100460708141326904e-01 -1.369028091430664062e-01 -2.923709154129028320e-01 9.534788131713867188e-01 -3.386314585804939270e-02
7.423360645771026611e-02 -2.740354239940643311e-01 -1.480185985565185547e-01 -3.986516296863555908e-01 -1.342581864446401596e-02 -4.276072382926940918e-01 -3.436629176139831543e-01 -3.600053191184997559e-01 4.355610162019729614e-02 1.646319925785064697e-01 1.018996164202690125e-01 -1.620534360408782959e-01 3.033241070806980133e-02 -1.884783357381820679e-01 -2.786831855773925781e-01 4.045877754688262939e-01 -4.347035586833953857e-01 6.185415983200073242e-01 -3.495584726333618164e-01 -2.515527307987213135e-01 3.305099904537200928e-01 -4.953742027282714844e-01 -4.714997708797454834e-01 8.904597759246826172e-01 -1.462798357009887695e+00
1.478489190340042114e-01 4.740884602069854736e-01 -3.937256634235382080e-01 2.466347534209489822e-03 2.779722511768341064e-01 2.703118622303009033e-01 -7.402087748050689697e-02 -2.517549395561218262e-01 -1.314326468855142593e-02 3.741397559642791748e-01 4.090126156806945801e-01 1.725036650896072388e-01 -3.937074542045593262e-01 -5.523452162742614746e-01 -2.575056254863739014e-01 -2.051163166761398315e-01 9.621069431304931641e-01 -2.479756996035575867e-02 4.176689982414245605e-01 1.833248883485794067e-01 -1.374241352081298828e+00 2.265022099018096924e-01 9.432367980480194092e-02 -1.119096875190734863e+00 1.338276505470275879e+00
-4.164087772369384766e-01 -6.024559736251831055e-01 -7.066811919212341309e-01 -4.995969235897064209e-01 -3.040225803852081299e-01 9.194979793392121792e-04 -2.118957638740539551e-01 -9.410535544157028198e-02 -4.197852313518524170e-01 -3.222657144069671631e-01 -1.624353677034378052e-01 -3.567103743553161621e-01 1.589197069406509399e-01 -8.734200894832611084e-02 1.148967891931533813e-01 -5.293571855872869492e-03 -1.666786372661590576e-01 -7.914505898952484131e-02 -5.393289923667907715e-01 -2.926960289478302002e-01 -1.571620553731918335e-01 -3.664299845695495605e-01 -1.219158694148063660e-01 3.005432486534118652e-01 -1.029439449310302734e+00
-9.493536502122879028e-02 -2.735967934131622314e-02 -6.001309752464294434e-01 -4.237847328186035156e-01 -4.103188514709472656e-01 -3.246743679046630859e-01 -4.210952818393707275e-01 -2.168845832347869873e-01 -1.846418231725692749e-01 -1.870561689138412476e-01 5.897358804941177368e-02 -3.516471087932586670e-01 -2.860777974128723145e-01 -2.536413073539733887e-01 -2.667765319347381592e-01 4.427428841590881348e-01 -2.902527153491973877e-01 4.285823106765747070e-01 -1.637098491191864014e-01 -3.943749368190765381e-01 5.008150339126586914e-01 -5.603376030921936035e-01 -1.166118264198303223e+00 9.021705985069274902e-01 -1.988735675811767578e+00
1.726505011320114136e-01 6.604393478482961655e-03 2.146437913179397583e-01 -2.543333172798156738e-01 -6.408160924911499023e-02 -5.204867124557495117e-01 -2.649251930415630341e-02 -2.103202342987060547e-01 -3.321355581283569336e-02 -3.992233872413635254e-01 -1.814908683300018311e-01 -1.637321859598159790e-01 -5.783421173691749573e-02 4.796596616506576538e-02 4.344072341918945312e-01 9.026878513395786285e-03 -3.669650256633758545e-01 -2.885061204433441162e-01 -5.548725128173828125e-01 1.536905318498611450e-01 2.351182848215103149e-01 -2.593494355678558350e-01 1.187570169568061829e-01 -4.202769994735717773e-01 -4.848534166812896729e-01
1.753982543945312500e+00 9.245976209640502930e-01 7.884754538536071777e-01 7.603195309638977051e-01 6.931419968605041504e-01 5.435389280319213867e-01 3.878835737705230713e-01 2.573119699954986572e-01 1.634716242551803589e-01 1.847263127565383911e-01 1.629130095243453979e-01 1.805263012647628784e-01 9.889417886734008789e-02 1.255128905177116394e-02 1.438923627138137817e-01 -1.992652416229248047e-01 3.258468210697174072e-01 -1.953171193599700928e-01 9.999120980501174927e-02 3.907522857189178467e-01 -4.180260300636291504e-01 5.463362336158752441e-01 4.317335784435272217e-01 -4.257197678089141846e-01 9.210689663887023926e-01
5.710608959197998047e-01 8.055376410484313965e-01 5.061478614807128906e-01 1.520715206861495972e-01 1.265002936124801636e-01 4.904259443283081055e-01 4.708314239978790283e-01 8.780641108751296997e-02 -7.514252513647079468e-02 -7.829965651035308838e-02 4.003144502639770508e-01 7.854995727539062500e-01 8.382822871208190918e-01 4.572752118110656738e-01 -2.530649006366729736e-01 -4.394395947456359863e-01 -4.233690202236175537e-01 1.870510727167129517e-01 5.296977758407592773e-01 2.249312251806259155e-01 4.732684195041656494e-01 8.494980633258819580e-02 -3.986980020999908447e-01 -1.206340640783309937e-01 1.500313878059387207e-01
2.275371849536895752e-01 3.158330917358398438e-01 4.658260345458984375e-01 1.554124504327774048e-01 2.720133960247039795e-01 -1.615417003631591797e-01 1.663445383310317993e-01 1.177630200982093811e-01 -1.743843555450439453e-01 1.584748476743698120e-01 4.922334253787994385e-01 4.211050271987915039e-01 -8.927812427282333374e-02 -3.027084767818450928e-01 1.792524456977844238e-01 1.215588077902793884e-01 8.122208118438720703e-01 -4.237194359302520752e-01 -2.230536341667175293e-01 1.377656310796737671e-01 -7.882024645805358887e-01 5.699051022529602051e-01 7.735885381698608398e-01 -8.607643246650695801e-01 1.171276569366455078e+00
-2.732376456260681152e-01 -2.177894115447998047e-01 -4.884131485596299171e-04 -2.503182888031005859e-01 -1.881114989519119263e-01 -6.013914346694946289e-01 -2.689844965934753418e-01 -1.527031213045120239e-01 -1.205866634845733643e-01 8.858796954154968262e-02 2.129736691713333130e-01 1.998374164104461670e-01 3.401964902877807617e-02 2.223615720868110657e-02 -4.609662294387817383e-01 4.157434105873107910e-01 -4.561352133750915527e-01 5.767735838890075684e-01 -2.461155056953430176e-01 -4.155230522155761719e-01 6.323155760765075684e-01 -4.785455763339996338e-01 -4.741256535053253174e-01 1.192405462265014648e+00 -1.499651193618774414e+00
-5.350511670112609863e-01 -9.009871482849121094e-01 -5.599365234375000000e-01 -2.834109663963317871e-01 1.231923140585422516e-02 1.732825636863708496e-01 1.504330188035964966e-01 -2.339842766523361206e-01 -3.429626822471618652e-01 -4.753511250019073486e-01 -2.998746633529663086e-01 -1.362479776144027710e-01 1.049448102712631226e-01 -1.546451747417449951e-01 -3.806400671601295471e-02 -3.000928163528442383e-01 -2.742400169372558594e-01 -6.763972342014312744e-02 -8.653672412037849426e-03 -9.082429856061935425e-02 -1.877978742122650146e-01 -2.476857602596282959e-01 -9.863843023777008057e-02 -6.989426016807556152e-01 -1.168000221252441406e+00
1.793795526027679443e-01 3.945328295230865479e-01 6.050184965133666992e-01 6.871588826179504395e-01 5.922418832778930664e-01 3.456427156925201416e-01 8.991478383541107178e-02 2.807586919516324997e-03 6.317985802888870239e-02 2.530719041824340820e-01 3.584689497947692871e-01 3.080939948558807373e-01 1.370317190885543823e-01 5.811598617583513260e-03 -1.028557866811752319e-01 3.366736322641372681e-02 7.259982079267501831e-02 2.745031714439392090e-01 2.603604197502136230e-01 1.416485160589218140e-01 1.118548437952995300e-01 9.768142551183700562e-02 -1.716003119945526123e-01 1.853968203067779541e-01 -7.307927310466766357e-02
2.373467385768890381e-01 5.913224816322326660e-01 8.415997028350830078e-01 6.734665632247924805e-01 5.306848287582397461e-01 3.383744657039642334e-01 -1.186579093337059021e-01 1.049972698092460632e-01 2.958311438560485840e-01 5.481091141700744629e-01 1.678165495395660400e-01 -1.653783954679965973e-02 -2.815583944320678711e-01 -2.591366171836853027e-01 1.562593281269073486e-01 3.946550488471984863e-01 2.210621386766433716e-01 -2.366694211959838867e-01 -4.721588268876075745e-02 -1.135588809847831726e-01 -2.328175753355026245e-01 6.048365235328674316e-01 3.654957711696624756e-01 1.146230846643447876e-01 9.949686527252197266e-01
