-3.959831595420837402e-02 -1.025679707527160645e-01 -2.100096046924591064e-01 -1.997365355491638184e-01 5.609185621142387390e-02 1.176337301731109619e-01 1.050236821174621582e-01 -2.034965008497238159e-01 1.939021795988082886e-01 -4.175220727920532227e-01 2.824969589710235596e-01 2.902585268020629883e-01 -2.892211675643920898e-01 1.186436861753463745e-01 2.945299744606018066e-01 1.784060299396514893e-01 -4.970576763153076172e-01 1.170734763145446777e-01 4.609786868095397949e-01 5.347321927547454834e-02 -8.218402415513992310e-02 -5.841472744941711426e-02 -6.373757869005203247e-02 2.290434837341308594e-01 4.723585546016693115e-01 -1.687486916780471802e-01 -5.972297787666320801e-01 3.981803059577941895e-01 3.699799776077270508e-01 -3.250797986984252930e-01 -9.815822541713714600e-02 5.505390763282775879e-01 -2.296629846096038818e-01 -1.013657450675964355e+00 1.268503069877624512e+00
-3.574610948562622070e-01 -6.495410203933715820e-01 -3.663621842861175537e-01 1.278569698333740234e-01 8.078532218933105469e-01 6.862399578094482422e-01 9.232418984174728394e-02 -6.349221467971801758e-01 -3.167899549007415771e-01 1.654625385999679565e-01 2.743147909641265869e-01 6.273106671869754791e-03 -1.879224181175231934e-01 -4.712220430374145508e-01 -1.838485002517700195e-01 -3.662574570626020432e-03 7.576319575309753418e-01 5.065718889236450195e-01 -3.530950844287872314e-01 -5.532882809638977051e-01 -5.164617300033569336e-01 3.977471962571144104e-02 9.383479356765747070e-01 2.846699059009552002e-01 -9.488029479980468750e-01 -1.053169012069702148e+00 -9.313744902610778809e-01 4.025738537311553955e-01 1.089687824249267578e+00 1.467526674270629883e+00 1.114959955215454102e+00 -2.044283002614974976e-01 -6.871011853218078613e-01 -2.179402559995651245e-01 1.211477145552635193e-01
9.729956835508346558e-02 3.201531469821929932e-01 2.511774897575378418e-01 -1.102286577224731445e-01 -2.379363477230072021e-01 -5.486470647156238556e-03 -4.872284829616546631e-01 2.796700000762939453e-01 -1.547324508428573608e-01 -6.868285685777664185e-02 4.136576950550079346e-01 -1.419090330600738525e-01 -4.358751773834228516e-01 8.871836960315704346e-02 9.773475527763366699e-01 3.621824681758880615e-01 -4.645664989948272705e-01 -1.033946514129638672e+00 -4.367557764053344727e-01 5.727135539054870605e-01 4.755274355411529541e-01 6.462027877569198608e-02 -3.322459757328033447e-01 -3.602537512779235840e-01 -8.707409352064132690e-02 3.877925872802734375e-01 7.143614888191223145e-01 -9.590329974889755249e-02 -5.353710055351257324e-01 1.183528378605842590e-01 1.190798655152320862e-01 -1.324383616447448730e-01 -1.514543145895004272e-01 5.812511444091796875e-01 -5.717664957046508789e-01
-2.920268848538398743e-02 1.394583377987146378e-02 3.734492883086204529e-02 -2.264892868697643280e-02 -1.168650691397488117e-03 -2.676936425268650055e-02 2.166012525558471680e-01 -2.483651190996170044e-01 3.072231411933898926e-01 -1.310104727745056152e-01 -1.822110563516616821e-01 1.717271059751510620e-01 5.619958043098449707e-02 -1.304032206535339355e-01 2.629406191408634186e-02 2.079741358757019043e-01 1.338962614536285400e-01 -8.171223849058151245e-02 9.635639376938343048e-03 -1.758917607367038727e-02 1.781093329191207886e-01 -4.891866073012351990e-02 -8.307262510061264038e-02 -4.821502044796943665e-02 9.542519226670265198e-03 4.399307817220687866e-02 1.527240723371505737e-01 -2.421649359166622162e-02 2.782896859571337700e-03 4.221336543560028076e-02 2.403226047754287720e-01 -3.064817786216735840e-01 7.444217801094055176e-02 -5.131363123655319214e-02 -3.189291656017303467e-01
-2.720679938793182373e-01 -1.943681240081787109e-01 -4.591771662235260010e-01 -2.689575254917144775e-01 -1.566818654537200928e-01 1.800716668367385864e-01 1.273506134748458862e-01 1.783048361539840698e-02 -8.277840912342071533e-02 6.689330935478210449e-02 -2.505275979638099670e-02 2.079766988754272461e-01 -2.504831850528717041e-01 -1.278267502784729004e-01 -1.075622905045747757e-02 -2.909455634653568268e-02 4.600182175636291504e-02 3.269998729228973389e-01 3.445817232131958008e-01 1.088883355259895325e-01 -4.969729185104370117e-01 -3.106358647346496582e-01 -4.340241849422454834e-01 2.745138108730316162e-01 1.063876032829284668e+00 5.618848800659179688e-01 -3.649126291275024414e-01 -6.557920575141906738e-01 -7.518297433853149414e-01 2.712298035621643066e-01 9.693431258201599121e-01 7.016155719757080078e-01 -9.864642471075057983e-02 -7.967407107353210449e-01 -9.635987281799316406e-01
-4.528286308050155640e-02 -1.471258848905563354e-01 -8.994249254465103149e-02 6.321493536233901978e-02 1.887445449829101562e-01 3.080131253227591515e-03 -1.411871314048767090e-01 -8.026000112295150757e-02 1.039002090692520142e-01 -1.933834850788116455e-01 1.268240660429000854e-01 -2.012115567922592163e-01 -7.305564731359481812e-02 3.490943610668182373e-01 2.057958692312240601e-01 -4.164365231990814209e-01 -1.215724553912878036e-02 3.836484625935554504e-02 -3.360704481601715088e-01 -2.039959579706192017e-01 1.732119619846343994e-01 2.969962954521179199e-01 4.766812324523925781e-01 -1.180602908134460449e-01 -8.572740554809570312e-01 4.273647442460060120e-02 5.046454668045043945e-01 1.231960952281951904e-01 -1.531814187765121460e-01 4.864175990223884583e-02 -3.521186709403991699e-01 -5.402634143829345703e-01 6.180172041058540344e-02 9.867529869079589844e-01 -1.177444979548454285e-01
-5.495696142315864563e-02 -1.055808644741773605e-02 1.083101853728294373e-01 1.241244748234748840e-01 -4.882037267088890076e-02 1.807063072919845581e-01 -4.323432445526123047e-01 3.714171051979064941e-01 -8.985160291194915771e-02 -3.960835039615631104e-01 3.339365124702453613e-01 4.294456839561462402e-01 -1.911150813102722168e-01 -5.630246996879577637e-01 -3.352920338511466980e-02 7.698207497596740723e-01 5.995783805847167969e-01 4.282613843679428101e-02 -4.473243653774261475e-01 -3.032580912113189697e-01 2.380807846784591675e-01 3.426561057567596436e-01 1.715936809778213501e-01 -1.941360682249069214e-01 -2.102182954549789429e-01 -9.011190384626388550e-03 2.944771349430084229e-01 3.364735841751098633e-01 1.260776668787002563e-01 -2.590321004390716553e-01 -2.863477170467376709e-02 9.400273114442825317e-02 3.515576720237731934e-01 1.713992357254028320e-01 -6.817761063575744629e-02
-1.093132644891738892e-01 -2.656083703041076660e-01 -1.396786123514175415e-01 -1.717791110277175903e-01 9.220466017723083496e-02 5.214909315109252930e-01 3.989461958408355713e-01 -3.391987383365631104e-01 -5.015528202056884766e-01 -3.486068174242973328e-02 1.918766647577285767e-01 2.181178927421569824e-01 3.978947997093200684e-01 1.188647076487541199e-01 -1.691295392811298370e-02 -3.595395386219024658e-01 -3.960113972425460815e-02 -3.509962260723114014e-01 -7.991882562637329102e-01 -6.182793974876403809e-01 -8.470022678375244141e-02 5.533841252326965332e-01 7.490109801292419434e-01 7.013460993766784668e-01 -2.075451239943504333e-02 2.989845871925354004e-01 8.778180480003356934e-01 3.494264185428619385e-01 -5.547752380371093750e-01 -1.076330304145812988e+00 -1.163125514984130859e+00 -8.724448680877685547e-01 -1.063291132450103760e-01 1.071660161018371582e+00 1.285913825035095215e+00
-1.087441444396972656e-01 -1.218184083700180054e-01 -3.346960246562957764e-01 7.408696413040161133e-02 4.951955080032348633e-01 1.642395108938217163e-01 -2.561354041099548340e-01 -1.991227567195892334e-01 1.987851858139038086e-01 3.301785588264465332e-01 5.738282576203346252e-02 -2.591456174850463867e-01 -4.784244298934936523e-01 -3.913575112819671631e-01 -1.189193055033683777e-01 5.729048848152160645e-01 7.352427244186401367e-01 6.140212416648864746e-01 -1.083544790744781494e-01 -7.860492467880249023e-01 -4.412099421024322510e-01 9.118313342332839966e-02 -9.905309975147247314e-02 1.044370234012603760e-01 2.731918990612030029e-01 -4.498959705233573914e-02 8.768095970153808594e-01 8.768370151519775391e-01 6.746606826782226562e-01 -4.304952621459960938e-01 -1.258551955223083496e+00 -1.453070044517517090e+00 -1.193203449249267578e+00 -1.033552289009094238e+00 9.891061484813690186e-02
-1.442108862102031708e-02 1.910847127437591553e-01 4.734314680099487305e-01 -1.658393293619155884e-01 -6.893680691719055176e-01 -4.452663660049438477e-01 3.108917474746704102e-01 7.363995909690856934e-01 8.355379700660705566e-01 3.656560480594635010e-01 -4.995134472846984863e-02 1.439302880316972733e-02 -1.069395244121551514e-01 -3.991314172744750977e-01 -2.867741584777832031e-01 -1.972630769014358521e-01 -7.566605508327484131e-02 -7.387753576040267944e-02 2.451153993606567383e-01 1.258209466934204102e+00 1.139763832092285156e+00 4.124124646186828613e-01 -4.761401414871215820e-01 -9.684696197509765625e-01 -7.838870882987976074e-01 2.283159494400024414e-01 7.369384765625000000e-01 -1.911843270063400269e-01 -2.825809717178344727e-01 -3.051509261131286621e-01 -1.115243285894393921e-01 3.544860780239105225e-01 1.141541242599487305e+00 1.417210459709167480e+00 1.715787351131439209e-01
-2.073434740304946899e-02 2.437139116227626801e-02 5.415941402316093445e-02 -7.201251573860645294e-04 1.124592032283544540e-02 -2.600620687007904053e-02 2.270750701427459717e-01 -2.239866107702255249e-01 3.409494757652282715e-01 -1.132106706500053406e-01 -1.792389601469039917e-01 1.677723675966262817e-01 7.714960724115371704e-02 -1.261818706989288330e-01 8.772595971822738647e-02 1.419611126184463501e-01 2.515885531902313232e-01 -1.208600029349327087e-01 -7.115363143384456635e-03 1.124093681573867798e-01 -3.998151049017906189e-02 1.195095181465148926e-01 -6.032694876194000244e-02 -1.899379938840866089e-01 9.130840003490447998e-02 6.294558942317962646e-02 9.707242250442504883e-02 -8.971183001995086670e-02 1.586330980062484741e-01 1.767407506704330444e-01 -1.428463459014892578e-01 3.545824810862541199e-02 6.977083534002304077e-02 -2.575012445449829102e-01 -1.848949640989303589e-01
-8.008688688278198242e-02 7.437327504158020020e-02 4.075606120750308037e-04 1.468471530824899673e-02 4.918592050671577454e-02 4.080371581949293613e-05 6.965185701847076416e-02 -1.431433670222759247e-02 5.560234189033508301e-02 -3.473369404673576355e-02 4.423826932907104492e-03 1.502375304698944092e-02 -2.795701101422309875e-02 3.475583344697952271e-02 -4.860609024763107300e-02 -4.548051953315734863e-02 -2.368190139532089233e-02 -6.820973008871078491e-02 -4.620527848601341248e-02 -9.807203710079193115e-02 1.504208147525787354e-01 -8.364996314048767090e-02 -4.731707647442817688e-02 -5.080509930849075317e-02 3.391751274466514587e-02 -1.373452097177505493e-01 7.589505612850189209e-02 5.844920873641967773e-02 -2.642362192273139954e-02 -1.278551071882247925e-01 3.986158967018127441e-02 2.026403695344924927e-01 -2.580570615828037262e-02 -1.010457128286361694e-01 8.746214956045150757e-02
-2.674861624836921692e-02 1.608786135911941528e-01 7.213316857814788818e-02 4.469922780990600586e-01 8.501767367124557495e-02 -3.134945929050445557e-01 -3.787389993667602539e-01 9.020532667636871338e-02 3.907378017902374268e-01 4.847776591777801514e-01 -2.517380379140377045e-02 -3.455694913864135742e-01 -2.298505753278732300e-01 -1.991203576326370239e-01 -4.285711795091629028e-03 -3.541666567325592041e-01 2.009413540363311768e-01 -5.345695093274116516e-02 -1.740540415048599243e-01 3.662902116775512695e-01 6.237091422080993652e-01 8.767846226692199707e-01 4.705366194248199463e-01 -1.116462588310241699e+00 -1.769278049468994141e+00 -1.094494938850402832e+00 3.231408596038818359e-01 1.074160814285278320e+00 1.227763295173645020e+00 9.839428663253784180e-01 1.265501230955123901e-01 -4.956584572792053223e-01 3.178941607475280762e-01 1.172990083694458008e+00 6.186799407005310059e-01
2.045541107654571533e-01 5.920777320861816406e-01 6.056368947029113770e-01 2.973508536815643311e-01 1.196573749184608459e-01 6.813958287239074707e-02 -2.025250494480133057e-01 -3.238008618354797363e-01 -9.733507782220840454e-02 4.037420451641082764e-01 1.493644267320632935e-01 -3.725488111376762390e-02 -2.149599604308605194e-02 -2.153410017490386963e-01 -3.344259858131408691e-01 -4.163828790187835693e-01 -2.828349173069000244e-02 1.142599210143089294e-01 3.528976738452911377e-01 8.407202363014221191e-01 5.649899840354919434e-01 3.527578413486480713e-01 -5.750848650932312012e-01 -1.031507849693298340e+00 -8.052724599838256836e-01 -8.105878531932830811e-02 5.580006241798400879e-01 4.176748991012573242e-01 -1.438163518905639648e-01 1.524689197540283203e-01 7.615094184875488281e-01 1.161712884902954102e+00 1.610384583473205566e+00 1.480185866355895996e+00 1.414585709571838379e+00
-6.691651046276092529e-02 4.243784770369529724e-02 1.700774133205413818e-01 -2.804544270038604736e-01 -2.725993394851684570e-01 8.267623931169509888e-02 -6.687483936548233032e-02 -1.096802651882171631e-01 2.231773361563682556e-02 1.390133351087570190e-01 1.768411695957183838e-01 3.407835587859153748e-02 6.997040659189224243e-02 -3.222588077187538147e-02 -4.739156961441040039e-01 -9.852468967437744141e-01 -5.173732042312622070e-01 2.167289853096008301e-01 1.006798505783081055e+00 1.065170168876647949e+00 -9.294173866510391235e-02 -6.691763997077941895e-01 -7.639163136482238770e-01 -2.732436060905456543e-01 1.716070026159286499e-01 3.274002373218536377e-01 5.210818648338317871e-01 -2.750396542251110077e-02 1.834095269441604614e-01 6.932325959205627441e-01 4.717075526714324951e-01 -4.733075797557830811e-01 -4.457738995552062988e-01 -3.760142028331756592e-01 -1.754633069038391113e+00
1.442185938358306885e-01 -2.394233457744121552e-02 -4.169063642621040344e-02 -1.111936122179031372e-01 1.424020081758499146e-01 2.122829258441925049e-01 2.529726624488830566e-01 -1.731181889772415161e-02 -1.297032088041305542e-01 -2.241048067808151245e-01 -1.409458275884389877e-02 -8.106588572263717651e-02 4.346961900591850281e-02 -1.971612274646759033e-01 -2.101450562477111816e-01 4.741200804710388184e-01 -6.492532044649124146e-02 2.009039670228958130e-01 6.223590373992919922e-01 4.422626271843910217e-02 -4.446819722652435303e-01 -3.210475444793701172e-01 -5.565807819366455078e-01 -3.100463151931762695e-01 6.412664055824279785e-01 6.130666732788085938e-01 -6.574962288141250610e-02 -2.931148111820220947e-01 -5.326750874519348145e-01 -4.552924335002899170e-01 -2.860555350780487061e-01 6.726353168487548828e-01 1.518841147422790527e+00 -5.081689730286598206e-02 -1.837757110595703125e+00
1.203931868076324463e-01 6.467836350202560425e-02 -2.831088304519653320e-01 -2.742367088794708252e-01 -1.208153367042541504e-01 3.047176897525787354e-01 -4.199365898966789246e-02 6.403939723968505859e-01 -3.662087917327880859e-01 -2.295310348272323608e-01 2.765661180019378662e-01 -1.416305452585220337e-01 -3.188064694404602051e-01 1.926907747983932495e-01 3.531688591465353966e-03 -4.333908557891845703e-01 -8.049771785736083984e-01 3.146396875381469727e-01 9.591019749641418457e-01 5.079125761985778809e-01 -1.661017239093780518e-01 -7.531358003616333008e-01 -4.607170820236206055e-01 4.089900851249694824e-01 7.570290565490722656e-01 1.626016795635223389e-01 -5.749179720878601074e-01 -7.595218420028686523e-01 -5.103117227554321289e-01 1.332487761974334717e-01 3.057907819747924805e-01 3.080759197473526001e-02 4.371738992631435394e-03 -5.549427270889282227e-01 -8.989626765251159668e-01
-1.741330623626708984e-01 -3.358453810214996338e-01 2.193263173103332520e-01 -3.246440738439559937e-02 3.764675557613372803e-01 3.776341080665588379e-01 1.508964002132415771e-01 -3.421402871608734131e-01 -2.804822623729705811e-01 1.840463094413280487e-02 3.323085308074951172e-01 9.045648574829101562e-02 2.472352795302867889e-02 -1.929678767919540405e-01 4.535224288702011108e-02 -8.140326291322708130e-02 -2.768439613282680511e-02 -3.428140580654144287e-01 -3.778188526630401611e-01 3.221228718757629395e-01 6.995573043823242188e-01 6.912845373153686523e-01 6.837993860244750977e-01 -2.667457330971956253e-03 -6.830983161926269531e-01 -6.782897114753723145e-01 -7.194095849990844727e-01 -5.773768424987792969e-01 -5.170611739158630371e-01 1.530211418867111206e-01 9.057111740112304688e-01 1.140112519264221191e+00 1.053968310356140137e+00 1.258762478828430176e+00 4.522171616554260254e-01
3.588250279426574707e-02 -1.686132699251174927e-01 1.335434913635253906e-01 5.196868777275085449e-01 6.986342370510101318e-02 -5.363694429397583008e-01 -2.195399254560470581e-01 5.292337536811828613e-01 4.488691389560699463e-01 1.784510761499404907e-01 -4.514944851398468018e-01 -8.305520415306091309e-01 -4.253093600273132324e-01 -3.318280354142189026e-02 4.434570372104644775e-01 4.092195034027099609e-01 5.923998355865478516e-01 -3.043925762176513672e-01 -1.788256615400314331e-01 1.428204476833343506e-01 5.132372975349426270e-01 2.909522652626037598e-01 -3.132100701332092285e-01 -1.012878417968750000e+00 -9.904368519783020020e-01 -1.488885134458541870e-01 3.008401989936828613e-01 6.603562831878662109e-01 2.976923882961273193e-01 1.781346052885055542e-01 2.363318763673305511e-02 3.350132703781127930e-02 2.782563865184783936e-01 4.997413754463195801e-01 1.256171911954879761e-01
-2.468803673982620239e-01 -6.870859861373901367e-01 -3.596312403678894043e-01 -4.414554834365844727e-01 -1.767734587192535400e-01 -2.435576766729354858e-01 1.206634417176246643e-01 1.032745614647865295e-01 2.076130658388137817e-01 -2.764101605862379074e-03 1.197049301117658615e-02 8.877369761466979980e-02 -2.273242175579071045e-02 -3.046448826789855957e-01 -3.308279514312744141e-01 -4.236755967140197754e-01 3.717498481273651123e-01 4.082791507244110107e-01 1.977435648441314697e-01 5.716829895973205566e-01 3.243830204010009766e-01 -3.135755062103271484e-01 -4.070811271667480469e-01 -6.646341085433959961e-01 -3.495166897773742676e-01 1.532158851623535156e-01 7.540373206138610840e-01 8.427184224128723145e-01 3.537901341915130615e-01 -1.518272906541824341e-01 -7.440763711929321289e-01 -6.291369795799255371e-01 5.086631178855895996e-01 1.074436068534851074e+00 1.169325232505798340e+00
1.666429936885833740e-01 3.609512150287628174e-01 4.570693075656890869e-01 2.234271317720413208e-01 1.832420974969863892e-01 1.202244013547897339e-01 1.317073255777359009e-01 9.877868928015232086e-03 1.031346172094345093e-01 4.970748722553253174e-02 4.036582261323928833e-02 1.199353411793708801e-01 -2.317278385162353516e-01 2.233273684978485107e-01 -1.366647779941558838e-01 1.945355981588363647e-01 8.163855969905853271e-02 -1.474581360816955566e-01 3.380636572837829590e-01 -7.249667495489120483e-02 -1.454973220825195312e-01 -2.299412786960601807e-01 -3.102193474769592285e-01 2.419789880514144897e-01 1.041018009185791016e+00 4.280357360839843750e-01 -2.804369926452636719e-01 -3.443404734134674072e-01 -3.619653880596160889e-01 -4.484784603118896484e-01 -6.091704964637756348e-01 7.552529573440551758e-01 1.079131841659545898e+00 -3.200625777244567871e-01 -1.809190273284912109e+00
9.557987749576568604e-02 3.824750334024429321e-02 -6.053774151951074600e-03 -1.566587686538696289e-01 -3.176426142454147339e-02 -2.074545174837112427e-01 -6.832870841026306152e-02 2.998622655868530273e-01 4.238952100276947021e-01 3.278013691306114197e-02 -2.492777556180953979e-01 -2.523383796215057373e-01 5.443582683801651001e-02 9.160031378269195557e-02 -1.591648347675800323e-02 -2.234922647476196289e-01 -5.707505941390991211e-01 -6.444299221038818359e-01 -4.706066846847534180e-01 7.033568620681762695e-01 1.150837302207946777e+00 2.617063820362091064e-01 -2.626360356807708740e-01 -3.854317665100097656e-01 -2.275657355785369873e-01 8.493103981018066406e-01 1.001186132431030273e+00 -7.030104100704193115e-02 -1.195699810981750488e+00 -4.241764843463897705e-01 5.468401908874511719e-01 6.224642992019653320e-01 1.898212313652038574e+00 1.690849661827087402e+00 7.424107193946838379e-01
-1.028855890035629272e-01 5.397326871752738953e-02 7.408187538385391235e-02 6.525793671607971191e-02 8.692097617313265800e-05 1.836091279983520508e-01 -7.575161289423704147e-03 2.060368889942765236e-03 -1.264140903949737549e-01 6.831276416778564453e-02 1.961517035961151123e-01 -1.493399590253829956e-01 -2.423311024904251099e-01 -1.633167639374732971e-02 -5.927247926592826843e-02 6.393633037805557251e-02 1.054599955677986145e-01 3.346940279006958008e-01 -9.005014598369598389e-02 -2.937938868999481201e-01 -1.257280111312866211e-01 3.105638027191162109e-01 3.879068493843078613e-01 3.535965383052825928e-01 2.882377244532108307e-02 -1.415550857782363892e-01 -3.264420330524444580e-01 -1.394686102867126465e-01 5.659510493278503418e-01 1.436251550912857056e-01 1.046798825263977051e-01 -3.567558526992797852e-01 -4.400354325771331787e-01 -1.005288027226924896e-02 4.383760094642639160e-01
-5.174311809241771698e-04 1.634823828935623169e-01 3.301949054002761841e-02 -2.587069272994995117e-01 6.327090412378311157e-02 -1.780225546099245548e-03 -1.270830631256103516e-01 2.971864044666290283e-01 5.616140961647033691e-01 3.864353895187377930e-01 -3.225013315677642822e-01 -7.441037297248840332e-01 -4.546044468879699707e-01 4.838423058390617371e-02 2.908743321895599365e-01 -5.182027071714401245e-02 1.690912246704101562e-01 3.936544954776763916e-01 5.580044984817504883e-01 -1.575062796473503113e-02 -7.411635518074035645e-01 -8.016297221183776855e-01 -3.085385859012603760e-01 2.879558205604553223e-01 7.908548116683959961e-01 2.063207030296325684e-01 -2.069470435380935669e-01 -5.125430822372436523e-01 -8.486256599426269531e-01 -2.846086919307708740e-01 -1.133767366409301758e-01 -2.391862422227859497e-01 -1.577421426773071289e-01 1.851279139518737793e-01 5.346286892890930176e-01
-1.254668533802032471e-01 -2.269001156091690063e-01 -3.259773254394531250e-01 -1.873029619455337524e-01 -2.475080788135528564e-01 -3.930437937378883362e-02 -1.008115410804748535e-01 2.127365469932556152e-01 1.630517281591892242e-02 2.190481275320053101e-01 -1.137008816003799438e-01 2.099085748195648193e-01 -4.177525267004966736e-02 3.055002987384796143e-01 9.542041271924972534e-02 2.036658078432083130e-01 2.037478536367416382e-01 1.106675192713737488e-01 1.313617918640375137e-02 1.211953088641166687e-01 -2.589193880558013916e-01 -4.430488497018814087e-02 1.120303198695182800e-01 1.291022747755050659e-01 -1.457317620515823364e-01 -1.875056698918342590e-02 -1.525561809539794922e-01 -1.489230990409851074e-01 -2.390099912881851196e-01 1.789880357682704926e-02 2.737984061241149902e-01 3.267757361754775047e-03 -4.750236272811889648e-01 -7.513089571148157120e-03 -1.707201898097991943e-01
2.432038635015487671e-01 3.019797801971435547e-01 -1.011733785271644592e-01 -2.904112935066223145e-01 -1.104570180177688599e-01 -6.944976747035980225e-02 -3.134215474128723145e-01 -6.474225968122482300e-02 3.359794020652770996e-01 4.387219250202178955e-01 3.847691714763641357e-01 3.613911196589469910e-02 -2.722725868225097656e-01 -2.262993901968002319e-01 -2.710536681115627289e-02 3.773705661296844482e-02 2.344814091920852661e-01 4.384443163871765137e-01 1.776535958051681519e-01 1.241464726626873016e-02 -1.918086409568786621e-01 6.806012243032455444e-02 2.874350547790527344e-01 -3.403673768043518066e-01 -1.187368988990783691e+00 -7.200740575790405273e-01 -4.284762442111968994e-01 4.991614222526550293e-01 1.758592247962951660e+00 1.735217213630676270e+00 6.964090466499328613e-01 -3.810033202171325684e-01 -5.455923676490783691e-01 -6.371940970420837402e-01 -8.780702948570251465e-01
1.178223043680191040e-01 1.607168316841125488e-01 3.234558999538421631e-01 1.099402606487274170e-01 3.634457886219024658e-01 2.855962216854095459e-01 -2.623286247253417969e-01 -3.724671602249145508e-01 -1.016196385025978088e-01 1.178771853446960449e-01 5.111911892890930176e-01 2.759714126586914062e-01 -2.060851603746414185e-01 -4.662946760654449463e-01 -1.251606941223144531e-01 6.327030062675476074e-02 9.472016245126724243e-02 -3.911109268665313721e-02 -3.748958930373191833e-02 -2.407166659832000732e-01 -1.663899272680282593e-01 3.479699492454528809e-01 1.021554350852966309e+00 1.176326394081115723e+00 2.678382098674774170e-01 -9.886719584465026855e-01 -1.715036153793334961e+00 -1.501785516738891602e+00 -3.804922401905059814e-01 7.178762555122375488e-01 1.072691559791564941e+00 8.893555998802185059e-01 -2.328501455485820770e-02 -1.708969473838806152e-01 -1.356327906250953674e-02
-1.681471057236194611e-02 1.216574907302856445e-01 1.733910739421844482e-01 2.349116951227188110e-01 9.600683301687240601e-02 -1.747168749570846558e-01 3.272120058536529541e-01 2.352252975106239319e-02 4.217125475406646729e-02 2.640853822231292725e-01 1.195321511477231979e-02 -3.583390712738037109e-01 -6.164741516113281250e-01 -5.214254837483167648e-03 5.299029946327209473e-01 5.379027724266052246e-01 -2.737019956111907959e-01 -4.532926082611083984e-01 -2.225900888442993164e-01 3.436563909053802490e-01 4.568349123001098633e-01 4.991265386343002319e-02 -3.460743129253387451e-01 -4.599947333335876465e-01 2.561354637145996094e-01 5.602259039878845215e-01 6.751561909914016724e-02 -1.192987114191055298e-01 -3.042898774147033691e-01 -1.228250414133071899e-01 -7.031156122684478760e-02 1.764307916164398193e-01 -3.020751662552356720e-02 -3.545101284980773926e-01 -8.653140664100646973e-01
2.876740694046020508e-02 -4.451743960380554199e-01 -3.077178895473480225e-01 3.254759609699249268e-01 5.086992383003234863e-01 -1.604725569486618042e-01 -6.869781017303466797e-01 -6.393739581108093262e-01 -8.854484558105468750e-02 7.469237446784973145e-01 9.961281418800354004e-01 4.603525400161743164e-01 1.037410572171211243e-01 -4.212120473384857178e-01 -6.216940879821777344e-01 -5.123183727264404297e-01 9.103851765394210815e-02 6.091483682394027710e-02 -3.138706386089324951e-01 -3.193086981773376465e-01 4.167603850364685059e-01 9.341646432876586914e-01 1.145036816596984863e+00 7.153686285018920898e-01 -4.055975973606109619e-01 -8.008747100830078125e-01 -5.362076163291931152e-01 3.960142284631729126e-02 -3.244902789592742920e-01 -1.468901187181472778e-01 5.846555903553962708e-02 -4.621940553188323975e-01 -1.325411051511764526e-01 4.523187875747680664e-01 1.004063963890075684e+00
-3.200286254286766052e-02 3.489748761057853699e-02 9.091193228960037231e-02 -4.602862894535064697e-02 -7.240568101406097412e-02 -7.018124312162399292e-02 3.718252182006835938e-01 -3.469329774379730225e-01 6.591137647628784180e-01 -2.970980405807495117e-01 -3.117071688175201416e-01 4.942241609096527100e-01 1.172146052122116089e-01 -3.429941534996032715e-01 1.427944302558898926e-01 3.961657583713531494e-01 2.492195218801498413e-01 -3.703850209712982178e-01 -5.079241096973419189e-02 3.777584135532379150e-01 2.401416897773742676e-01 -2.005231194198131561e-02 -3.977379202842712402e-01 -1.363148242235183716e-01 -4.045189172029495239e-02 3.708579838275909424e-01 2.672368288040161133e-01 -2.474326789379119873e-01 -4.784172475337982178e-01 3.579783439636230469e-01 4.389159381389617920e-02 -9.445128589868545532e-02 4.641467332839965820e-02 3.902770280838012695e-01 -1.159327745437622070e+00
7.503413129597902298e-03 -7.831571251153945923e-02 5.701205506920814514e-02 -1.061977520585060120e-01 7.770042121410369873e-02 -2.499217987060546875e-01 9.763878583908081055e-02 1.554674506187438965e-01 -2.309006601572036743e-01 -1.712175831198692322e-02 5.608384013175964355e-01 1.253917627036571503e-02 -6.105720996856689453e-01 -6.972396969795227051e-01 2.033877372741699219e-01 4.053315520286560059e-01 6.487568020820617676e-01 8.994781225919723511e-02 -2.919949591159820557e-01 -2.099990248680114746e-01 -5.605248212814331055e-01 -1.851025223731994629e-01 3.900430798530578613e-01 4.101086258888244629e-01 3.756719827651977539e-01 1.063457727432250977e-01 -4.622275531291961670e-01 -2.366539686918258667e-01 -4.530518651008605957e-01 2.289901115000247955e-02 5.544239878654479980e-01 4.501942694187164307e-01 7.403833419084548950e-02 2.016141712665557861e-01 2.936144173145294189e-01
9.560045786201953888e-03 6.453814357519149780e-02 1.607408821582794189e-01 2.543805539608001709e-01 -2.268195301294326782e-01 1.184654086828231812e-01 9.045285731554031372e-02 -2.357260584831237793e-01 -3.778690472245216370e-02 2.161735445261001587e-01 4.190482199192047119e-01 2.118682265281677246e-01 -3.753266036510467529e-01 -3.685381114482879639e-01 -1.881804130971431732e-02 2.916049659252166748e-01 -2.340259999036788940e-01 -2.482821494340896606e-01 3.236835896968841553e-01 4.319301843643188477e-01 4.714601337909698486e-01 -4.219993203878402710e-02 -5.341747999191284180e-01 -4.504275918006896973e-01 1.914888471364974976e-01 -1.212696805596351624e-01 -7.819375395774841309e-02 2.583245635032653809e-01 -1.636707335710525513e-01 -9.577770233154296875e-01 -5.940630435943603516e-01 -1.516585517674684525e-02 -6.935377120971679688e-01 -1.278454899787902832e+00 1.225279331207275391e+00
-4.107606709003448486e-01 -2.312260270118713379e-01 5.336564779281616211e-01 7.986631989479064941e-01 2.844112813472747803e-01 -4.451920986175537109e-01 -8.251337409019470215e-01 -6.650569438934326172e-01 -1.409675031900405884e-01 3.494106233119964600e-01 3.562515974044799805e-01 4.680331051349639893e-01 3.040801584720611572e-01 -1.339597553014755249e-01 -4.449887573719024658e-02 -2.888235151767730713e-01 7.261918485164642334e-02 -4.291903376579284668e-01 -8.321979045867919922e-01 -2.660365104675292969e-01 4.551017880439758301e-01 3.574492633342742920e-01 9.534977078437805176e-01 -1.164602115750312805e-02 -5.041886568069458008e-01 4.820827394723892212e-02 5.305131673812866211e-01 4.674803912639617920e-01 2.019922435283660889e-01 -2.649489343166351318e-01 -7.275967597961425781e-01 -9.092008471488952637e-01 -5.944341421127319336e-01 3.382408320903778076e-01 9.439409375190734863e-01
-7.780573796480894089e-04 -2.874039113521575928e-01 -2.207025736570358276e-01 -2.244249731302261353e-02 3.421618640422821045e-01 1.174440011382102966e-01 -4.019226506352424622e-02 -3.615614771842956543e-01 -1.959870159626007080e-01 -2.387389987707138062e-01 -7.194627821445465088e-02 2.503038048744201660e-01 4.136094450950622559e-01 4.734136760234832764e-01 2.607357501983642578e-01 -3.044087290763854980e-01 -5.097042322158813477e-01 -5.018407106399536133e-01 -4.648792445659637451e-01 -3.635818958282470703e-01 2.467423230409622192e-01 5.119630098342895508e-01 7.806572318077087402e-01 4.027330875396728516e-01 -7.415133714675903320e-02 -4.692554175853729248e-01 -5.228414535522460938e-01 -3.030592203140258789e-01 7.552413940429687500e-01 5.988790392875671387e-01 -2.164767123758792877e-02 -4.347026348114013672e-01 -6.799482107162475586e-01 1.519596725702285767e-01 -5.754058808088302612e-02
2.227306216955184937e-01 5.385099649429321289e-01 4.289063811302185059e-01 3.347033560276031494e-01 -2.275457829236984253e-01 -1.298582702875137329e-01 -1.647184193134307861e-01 1.682017594575881958e-01 1.818400770425796509e-01 6.402171403169631958e-02 -2.077670842409133911e-01 -3.913053274154663086e-01 -3.488666713237762451e-01 2.863367460668087006e-02 -4.461145028471946716e-02 -2.848047995939850807e-03 2.041034996509552002e-01 -3.365253806114196777e-01 -2.862627506256103516e-01 2.838456928730010986e-01 4.739155769348144531e-01 3.978284299373626709e-01 -4.635190218687057495e-02 -4.147476553916931152e-01 -5.027424097061157227e-01 3.919213637709617615e-02 1.015211790800094604e-01 2.408779412508010864e-01 1.993061304092407227e-01 4.231014102697372437e-02 -2.220254540443420410e-01 -6.531248092651367188e-01 8.609855175018310547e-01 1.051089882850646973e+00 2.138157784938812256e-01
