1.483905711211264133e-03 6.754491012543439865e-03 6.802400108426809311e-03 8.804863318800926208e-03 -1.433231169357895851e-03 -5.300187040120363235e-03 -1.056585088372230530e-02 -5.706363823264837265e-03 -5.812896881252527237e-03 -8.669562637805938721e-03 -1.872550882399082184e-02 -2.843272499740123749e-02 -3.287211433053016663e-02 -3.973988443613052368e-02 -2.055753767490386963e-02 -4.760756716132164001e-02 1.110046450048685074e-02 -6.079547107219696045e-02 2.623574994504451752e-02 -6.050710752606391907e-02 2.376015670597553253e-02 -4.898257553577423096e-02 4.477573931217193604e-02 -3.364199772477149963e-02 4.073805361986160278e-02
4.958017915487289429e-02 1.677424833178520203e-02 9.719923883676528931e-02 5.035742372274398804e-02 -9.437651373445987701e-03 9.291040711104869843e-03 -1.445610448718070984e-02 1.689608395099639893e-01 -4.327106103301048279e-02 6.920252740383148193e-02 1.482601463794708252e-01 2.624774575233459473e-01 -2.079737484455108643e-01 3.717087805271148682e-01 2.202271670103073120e-01 3.573952317237854004e-01 -1.675333380699157715e-01 2.497385293245315552e-01 3.689762577414512634e-02 -2.041099965572357178e-01 -2.794021964073181152e-01 -4.101454615592956543e-01 6.816609948873519897e-02 5.629621744155883789e-01 -2.513028681278228760e-01
2.100350894033908844e-02 1.470097526907920837e-02 2.481925860047340393e-02 4.951504617929458618e-02 4.445490241050720215e-02 2.844929099082946777e-01 -1.531128585338592529e-01 1.294403374195098877e-01 2.441618889570236206e-01 -2.721857428550720215e-01 2.809592522680759430e-02 2.972200810909271240e-01 1.349913477897644043e-01 -3.794576525688171387e-01 7.996562123298645020e-02 8.260017633438110352e-02 4.857719838619232178e-01 -3.199500441551208496e-01 -2.577057182788848877e-01 2.754303216934204102e-01 -1.802928596735000610e-01 -1.162458397448062897e-02 -1.697290539741516113e-01 -7.847787737846374512e-01 2.531942129135131836e-01
-3.027575835585594177e-02 -4.503376036882400513e-02 -5.027101561427116394e-02 -1.094107627868652344e-01 -3.105446323752403259e-02 -7.511885464191436768e-02 5.371826142072677612e-02 5.690583027899265289e-03 1.348843518644571304e-02 -6.107705458998680115e-02 3.172332644462585449e-01 -3.784339427947998047e-01 -1.195854991674423218e-01 5.498399138450622559e-01 -1.915671080350875854e-01 -2.920049726963043213e-01 -1.334466040134429932e-01 4.901232123374938965e-01 1.023450791835784912e-01 -7.099673151969909668e-01 7.555081695318222046e-02 -5.601616576313972473e-02 -2.795198559761047363e-01 6.130701303482055664e-01 -9.077619910240173340e-01
-1.465303008444607258e-03 -7.873577997088432312e-03 -1.393350213766098022e-02 -1.849852874875068665e-02 -2.076878212392330170e-02 -2.066487632691860199e-02 -1.908827945590019226e-02 -1.719550415873527527e-02 -1.082473900169134140e-02 -3.146568546071648598e-03 1.048912014812231064e-02 1.952061243355274200e-02 3.026737645268440247e-02 2.782564423978328705e-02 5.036650970578193665e-02 3.036697395145893097e-02 8.233901113271713257e-02 1.445274893194437027e-02 1.058213785290718079e-01 -2.695590816438198090e-02 1.204849854111671448e-01 -7.395775616168975830e-02 1.284328848123550415e-01 -6.275147199630737305e-02 6.554014235734939575e-02
-2.821430861949920654e-01 6.921322643756866455e-02 -1.248508468270301819e-01 2.118136435747146606e-01 2.851130440831184387e-02 2.241052389144897461e-01 -2.538942396640777588e-01 -2.311669588088989258e-01 -1.113185435533523560e-01 3.271915614604949951e-01 3.013466596603393555e-01 2.945806980133056641e-01 -8.273225277662277222e-02 -3.743981122970581055e-01 -1.940204352140426636e-01 -6.573361158370971680e-01 4.177608489990234375e-01 -2.356296479701995850e-01 1.194065958261489868e-01 5.670150518417358398e-01 -4.431264400482177734e-01 -9.148130565881729126e-02 1.985319256782531738e-01 -1.089776515960693359e+00 7.686154842376708984e-01
1.436335686594247818e-02 3.125861054286360741e-03 7.738983258605003357e-03 9.200320579111576080e-03 -7.756492495536804199e-02 2.068075388669967651e-01 -5.463820099830627441e-01 7.319272756576538086e-01 -6.559975147247314453e-01 1.420622505247592926e-02 5.186996459960937500e-01 -2.486993819475173950e-01 -3.424873054027557373e-01 3.075125217437744141e-01 3.035860657691955566e-01 -1.513555645942687988e-01 -2.806368470191955566e-01 6.484962254762649536e-02 2.334348410367965698e-01 1.594966500997543335e-01 -1.301011294126510620e-01 -1.562692672014236450e-01 2.144280821084976196e-01 7.002522796392440796e-02 1.886656284332275391e-01
2.712861821055412292e-02 8.948396146297454834e-02 5.232185497879981995e-02 7.323918491601943970e-02 2.784511074423789978e-03 -6.325794011354446411e-02 -1.794404089450836182e-01 -6.664189696311950684e-02 -1.619344651699066162e-01 2.999240159988403320e-01 -1.903983950614929199e-01 1.521876007318496704e-01 -6.319937855005264282e-02 -6.789975613355636597e-02 9.970628470182418823e-02 1.497033983469009399e-01 3.831673562526702881e-01 -1.282504945993423462e-02 -5.030520558357238770e-01 -1.907581090927124023e-01 -5.397951602935791016e-01 -1.344011127948760986e-01 3.016718626022338867e-01 -5.694788098335266113e-01 -4.643186926841735840e-01
1.639690548181533813e-01 9.921965003013610840e-02 2.680890634655952454e-02 -5.591921508312225342e-02 -2.056405395269393921e-01 5.545659735798835754e-02 1.477967053651809692e-01 1.800364702939987183e-01 2.257680147886276245e-01 -1.144738569855690002e-01 9.781317412853240967e-02 -4.377426952123641968e-02 1.965777762234210968e-02 1.544115133583545685e-02 2.007558643817901611e-01 3.557500541210174561e-01 2.879116833209991455e-01 -1.761121749877929688e-01 3.951075673103332520e-02 3.554073348641395569e-02 2.201576903462409973e-02 2.853359878063201904e-01 1.132194399833679199e-01 -4.063546359539031982e-01 9.015476703643798828e-01
5.125052481889724731e-02 1.212664023041725159e-01 -5.858919396996498108e-02 1.853504478931427002e-01 1.286854445934295654e-01 9.787021577358245850e-02 -1.567268669605255127e-01 -2.668313123285770416e-02 -1.017545834183692932e-01 -1.713509708642959595e-01 -1.630832999944686890e-01 -4.170243442058563232e-02 1.659512147307395935e-02 3.082492947578430176e-01 -1.219146251678466797e-01 -1.292291283607482910e-01 -3.320060074329376221e-01 2.627075463533401489e-02 1.824648529291152954e-01 2.350957840681076050e-01 2.080082744359970093e-01 -3.270263075828552246e-01 -1.032150536775588989e-01 -2.379748225212097168e-01 -7.034450173377990723e-01
6.442946381866931915e-03 -7.728880736976861954e-03 -1.136563420295715332e-01 -1.012046337127685547e-01 1.512502878904342651e-01 2.819007337093353271e-01 2.575897872447967529e-01 3.295378088951110840e-01 -3.095009624958038330e-01 -3.526620799675583839e-03 1.476648636162281036e-02 1.257629990577697754e-01 -1.188043579459190369e-01 -9.475561231374740601e-02 -7.433391809463500977e-01 2.386892586946487427e-01 -4.815693497657775879e-01 7.803087830543518066e-01 7.842768914997577667e-03 -3.748322725296020508e-01 4.654543399810791016e-01 -2.002409100532531738e-01 -2.229611873626708984e-01 1.164751648902893066e+00 -2.508257031440734863e-01
4.811168313026428223e-01 2.113748639822006226e-01 2.490583062171936035e-01 -3.767726123332977295e-01 -2.542946636676788330e-01 -3.616089522838592529e-01 5.192842800170183182e-03 7.873976230621337891e-02 3.258299231529235840e-01 1.927199028432369232e-02 -1.973832547664642334e-01 -1.751909703016281128e-01 -1.074053570628166199e-01 1.842770278453826904e-01 1.411607563495635986e-01 2.462879419326782227e-01 1.571306288242340088e-01 1.159968376159667969e-01 -9.129944443702697754e-02 -7.305314391851425171e-02 6.698872894048690796e-02 2.741241753101348877e-01 -2.071533650159835815e-01 4.446800947189331055e-01 -4.882450103759765625e-01
-1.462035253643989563e-02 -5.475550517439842224e-02 -1.489332225173711777e-02 -5.833282321691513062e-02 -4.959000740200281143e-03 1.030807755887508392e-02 3.481179103255271912e-02 3.624330088496208191e-02 1.990617997944355011e-02 -1.613914780318737030e-02 5.777164362370967865e-03 2.926931157708168030e-02 2.009822055697441101e-02 -9.781277738511562347e-03 -3.647160902619361877e-02 -2.073178999125957489e-02 -5.901703238487243652e-02 -7.955010980367660522e-02 -5.862092971801757812e-02 -1.162635609507560730e-01 -2.021422050893306732e-02 -1.867058686912059784e-02 -5.300452932715415955e-02 -1.972326822578907013e-02 -8.227385580539703369e-02
3.984798863530158997e-02 5.740030109882354736e-02 -6.968411034904420376e-04 3.126677498221397400e-02 1.003699079155921936e-01 1.064619347453117371e-01 9.628650546073913574e-02 1.283509433269500732e-01 6.893450766801834106e-02 1.174534112215042114e-01 8.214754611253738403e-02 4.254873096942901611e-02 -4.307528212666511536e-02 3.954346477985382080e-02 6.898667663335800171e-03 4.002485796809196472e-02 -1.313177049160003662e-01 6.076351739466190338e-03 3.648734418675303459e-03 -7.428070902824401855e-02 1.102082058787345886e-02 -2.109449915587902069e-02 -1.853078454732894897e-01 1.379381418228149414e-01 -1.752121895551681519e-01
-1.348105520009994507e-01 -9.265235811471939087e-02 -1.976228803396224976e-01 7.450843602418899536e-02 -8.191353827714920044e-02 -3.423939347267150879e-01 -1.487009823322296143e-01 -8.063210546970367432e-02 -8.325081318616867065e-02 5.977229215204715729e-03 2.065062522888183594e-02 4.631185531616210938e-02 -2.001638896763324738e-02 1.482932120561599731e-01 -5.217587947845458984e-01 3.460746407508850098e-01 -4.312642216682434082e-01 4.324765503406524658e-01 3.081001043319702148e-01 5.589210987091064453e-02 2.900228202342987061e-01 -2.428074926137924194e-01 -6.335408091545104980e-01 -4.436345398426055908e-02 -3.269354403018951416e-01
-1.665985584259033203e-02 9.721815586090087891e-02 7.989541441202163696e-02 -8.493415266275405884e-02 -1.954804956912994385e-01 -2.282725125551223755e-01 5.782535299658775330e-02 -1.412460654973983765e-01 3.135930374264717102e-02 -2.873321808874607086e-02 -5.754351243376731873e-02 -2.265904992818832397e-01 1.817342825233936310e-02 -1.905350089073181152e-01 5.067133903503417969e-01 -3.391024172306060791e-01 1.883695423603057861e-01 -4.520441293716430664e-01 -3.349396586418151855e-01 5.159977674484252930e-01 5.244765430688858032e-02 3.758263960480690002e-02 1.016784682869911194e-01 -2.269454151391983032e-01 -1.158154830336570740e-01
8.463595807552337646e-02 1.323560997843742371e-02 1.525383442640304565e-01 1.069649904966354370e-01 -1.006717756390571594e-01 -2.478027939796447754e-01 -3.856356143951416016e-01 -2.595661766827106476e-02 1.201546862721443176e-01 4.250068962574005127e-01 1.818402260541915894e-01 -1.636602878570556641e-01 -3.311615586280822754e-01 -4.252181947231292725e-02 -3.992446139454841614e-02 4.273061454296112061e-01 -1.634928137063980103e-01 2.334866076707839966e-01 -3.735992014408111572e-01 -2.226472944021224976e-01 1.137442067265510559e-01 2.388016581535339355e-01 1.818706281483173370e-02 1.083449721336364746e-01 2.992294542491436005e-02
1.816023439168930054e-01 3.830877840518951416e-01 3.788736760616302490e-01 -1.601932919584214687e-03 -1.126325428485870361e-01 -1.343170702457427979e-01 2.310881614685058594e-01 2.172995805740356445e-01 2.726553976535797119e-01 -1.841484159231185913e-01 -1.825821250677108765e-01 -6.392405182123184204e-02 3.052291460335254669e-02 9.307605028152465820e-02 1.794729754328727722e-02 -7.410311698913574219e-02 -1.531652957201004028e-01 -1.038898527622222900e-01 -7.685302197933197021e-02 -2.447546273469924927e-01 -2.267560660839080811e-01 1.555765420198440552e-01 -2.056480385363101959e-02 -6.538125872611999512e-02 6.243444085121154785e-01
-1.216039992868900299e-02 -2.364533580839633942e-02 -4.079604521393775940e-02 -4.392951726913452148e-02 -3.970858082175254822e-02 -2.712680585682392120e-02 -2.147198282182216644e-02 -1.478765439242124557e-02 -1.260940544307231903e-02 -4.670467693358659744e-03 6.141880061477422714e-03 2.172268182039260864e-02 2.914245612919330597e-02 2.676383964717388153e-02 2.610676176846027374e-02 5.109578371047973633e-03 5.846573505550622940e-03 7.304570637643337250e-03 -5.624537914991378784e-02 8.253122866153717041e-02 -1.750905662775039673e-01 1.582169830799102783e-01 -1.995570659637451172e-01 9.121641516685485840e-02 -7.210016995668411255e-02
1.258312910795211792e-01 2.617693245410919189e-01 -1.163821294903755188e-01 -5.506015568971633911e-02 -3.823662400245666504e-01 -2.235113382339477539e-01 -2.333481051027774811e-02 3.806563913822174072e-01 1.867613568902015686e-02 2.365191727876663208e-01 -8.647982776165008545e-02 7.231786102056503296e-02 -1.262308657169342041e-01 2.732984125614166260e-01 2.208867073059082031e-01 1.171983182430267334e-01 -8.136408776044845581e-02 -3.363738358020782471e-01 -3.027235567569732666e-01 -1.222171634435653687e-01 2.393337637186050415e-01 1.253632158041000366e-01 1.721312701702117920e-01 -3.972306847572326660e-01 -1.502641439437866211e-01
-7.518966682255268097e-03 -1.943205855786800385e-02 -3.911708667874336243e-02 -5.709660053253173828e-02 -7.349774986505508423e-02 -8.317200094461441040e-02 -8.823603391647338867e-02 -9.162884205579757690e-02 -9.156703948974609375e-02 -9.206847101449966431e-02 -8.449578285217285156e-02 -7.187660038471221924e-02 -4.904142394661903381e-02 -4.742274805903434753e-02 -1.851264946162700653e-02 -4.586334154009819031e-02 -4.597302759066224098e-04 -1.687267608940601349e-02 -3.563468530774116516e-02 6.919029355049133301e-02 -1.094385907053947449e-01 9.499062597751617432e-02 -5.836627632379531860e-02 1.672907546162605286e-02 1.878802478313446045e-02
4.880776687059551477e-04 -2.215851600340101868e-05 -5.695851054042577744e-03 -1.261164527386426926e-02 -2.055770717561244965e-02 -2.369803376495838165e-02 -2.810966782271862030e-02 -3.107548505067825317e-02 -3.797461837530136108e-02 -4.347357898950576782e-02 -4.966665431857109070e-02 -5.076597630977630615e-02 -4.763962328433990479e-02 -4.174011945724487305e-02 -2.197402156889438629e-02 -2.382175996899604797e-02 -2.666948130354285240e-03 -1.342528965324163437e-03 -2.182995341718196869e-02 4.957962781190872192e-02 -3.882441669702529907e-02 6.615609675645828247e-02 4.545134957879781723e-03 1.387528609484434128e-02 2.626135945320129395e-02
-9.532856196165084839e-02 -6.216283142566680908e-02 1.036962568759918213e-01 3.588766157627105713e-01 3.321274220943450928e-01 -1.554391980171203613e-01 -2.611759901046752930e-01 -4.085635244846343994e-01 -1.013340726494789124e-01 -1.943750120699405670e-02 4.314605891704559326e-01 4.527682363986968994e-01 5.583182349801063538e-02 -5.586838126182556152e-01 2.263345569372177124e-02 -4.055799916386604309e-02 8.471184372901916504e-01 1.680075377225875854e-02 -6.687347590923309326e-02 -3.772655725479125977e-01 -1.037435173988342285e+00 -3.323774039745330811e-01 4.221152663230895996e-01 -3.328892588615417480e-01 5.574294328689575195e-01
-2.243444323539733887e-03 1.591013977304100990e-03 -7.844339124858379364e-03 -1.622758060693740845e-02 -1.861836947500705719e-02 2.635228447616100311e-02 -1.932580024003982544e-01 4.262407720088958740e-01 -7.251144647598266602e-01 7.044908404350280762e-01 -1.891885697841644287e-01 -4.957911372184753418e-01 3.533521294593811035e-01 2.372197508811950684e-01 -4.717376828193664551e-01 -2.031550258398056030e-01 2.133812904357910156e-01 2.030896842479705811e-01 -2.789790630340576172e-01 -3.422931730747222900e-01 -1.006852239370346069e-01 4.283897578716278076e-02 -6.503862142562866211e-02 1.068547833710908890e-03 -4.073792397975921631e-01
7.950804382562637329e-02 -3.544289618730545044e-02 2.770139575004577637e-01 5.347423627972602844e-02 1.021244097501039505e-02 -1.045432537794113159e-01 2.155925333499908447e-02 1.735343933105468750e-01 -4.508335888385772705e-02 -4.175129532814025879e-02 -1.860150545835494995e-01 -3.979650512337684631e-02 -1.852626651525497437e-01 1.559649407863616943e-01 -3.471787869930267334e-01 2.969259321689605713e-01 -2.468459755182266235e-01 2.342400848865509033e-01 2.054279148578643799e-01 -2.627134025096893311e-01 1.092844083905220032e-01 -1.357283592224121094e-01 -5.255404710769653320e-01 1.645095497369766235e-01 -2.532910704612731934e-01
